digraph Tree {
node [shape=box, style="filled", color="black"] ;
0 [label="X[6] <= 0.5\ngini = 0.473\nsamples = 891\nvalue = [549, 342]", fillcolor="#f5cfb4"] ;
1 [label="X[4] <= 0.5\ngini = 0.383\nsamples = 314\nvalue = [81, 233]", fillcolor="#7ebfee"] ;
0 -> 1 [labeldistance=2.5, labelangle=45, headlabel="True"] ;
2 [label="gini = 0.1\nsamples = 170\nvalue = [9, 161]", fillcolor="#44a2e6"] ;
1 -> 2 ;
3 [label="gini = 0.5\nsamples = 144\nvalue = [72, 72]", fillcolor="#ffffff"] ;
1 -> 3 ;
4 [label="X[0] <= 6.5\ngini = 0.306\nsamples = 577\nvalue = [468, 109]", fillcolor="#eb9e67"] ;
0 -> 4 [labeldistance=2.5, labelangle=-45, headlabel="False"] ;
5 [label="gini = 0.444\nsamples = 24\nvalue = [8, 16]", fillcolor="#9ccef2"] ;
4 -> 5 ;
6 [label="gini = 0.28\nsamples = 553\nvalue = [460, 93]", fillcolor="#ea9a61"] ;
4 -> 6 ;
}